/*!
 * The following copyright notice may not be removed under any circumstances.
 * 
 * Copyright:
 * 1999 - Iconian Fonts: http://members.xoom.com/iconianfonts/
 */
Cufon.registerFont({"w":742,"face":{"font-family":"Usuzi","font-weight":400,"font-stretch":"normal","units-per-em":"1000","panose-1":"0 0 4 0 0 0 0 0 0 0","ascent":"800","descent":"-200","bbox":"-2.03841 -613 850 138","underline-thickness":"20","underline-position":"-190","unicode-range":"U+0020-U+007E"},"glyphs":{" ":{"w":522},"!":{"d":"174,-182r-174,0r0,-398r175,0xm148,-115r0,115r-124,0r0,-115r124,0","w":252},"\"":{"d":"330,-579r0,115r-124,138r0,-253r124,0xm124,-579r0,115r-124,138r0,-253r124,0","w":394},"#":{"d":"471,-258r0,-95r-94,0r0,95r94,0","w":710},"$":{"w":802},"%":{"w":810},"&":{"w":684},"'":{"d":"124,-579r0,115r-124,138r0,-253r124,0","w":198},"(":{"d":"282,-448v-77,-1,-108,25,-108,90r0,132v4,69,29,94,108,94r0,132r-77,0v-141,0,-206,-40,-206,-167r0,-246v-5,-155,116,-174,283,-167r0,132","w":358},")":{"d":"-1,-448v77,-1,108,25,108,90r0,132v-4,69,-29,94,-108,94r0,132r77,0v141,0,206,-40,206,-167r0,-246v5,-155,-116,-174,-283,-167r0,132","w":358},"*":{"w":796},"+":{"d":"213,-506v136,0,218,86,218,222v0,131,-86,222,-218,222v-131,0,-213,-90,-213,-222v0,-134,81,-222,213,-222","w":511},",":{"d":"124,-115r0,115r-124,138r0,-253r124,0","w":198},"-":{"d":"0,-226r0,-132r409,0r0,132r-409,0","w":482},"\u2010":{"d":"0,-226r0,-132r409,0r0,132r-409,0","w":482},".":{"d":"124,-115r0,115r-124,0r0,-115r124,0","w":198},"\/":{"d":"185,0r-185,0r515,-613r182,0","w":762},"0":{"d":"461,0v141,1,203,-43,203,-167r0,-246v-4,-124,-62,-168,-203,-167r-256,0v-141,0,-206,40,-206,167r0,246v4,126,65,167,206,167r256,0xm380,-448v84,1,109,18,109,92r0,133v-6,72,-24,91,-109,91r-98,0v-78,0,-107,-24,-107,-92r0,-132v2,-67,29,-93,107,-92r98,0xm246,-229r170,-1r0,-116r-170,0r0,117"},"1":{"d":"240,-132r-240,0r0,132r664,0r0,-132r-250,0r0,-448r-414,0r0,132r240,0r0,316"},"2":{"d":"686,-392v23,-69,8,-113,-34,-154v-23,-23,-55,-34,-98,-34r-554,0r0,132r459,0v29,-3,16,27,6,31r-392,145v-102,25,-67,157,-73,272r696,0r0,-136r-504,0r1,-30r435,-164v29,-11,48,-32,58,-62","w":772},"3":{"d":"664,-413v-4,-126,-65,-167,-206,-167r-459,0r0,132r382,0v77,-1,104,25,108,90r-490,0r0,132r490,0v-4,69,-29,94,-108,94r-382,0r0,132r459,0v141,0,206,-40,206,-167r0,-246"},"4":{"d":"0,-226r488,0r0,226r176,0r0,-580r-176,0r0,222r-314,0r0,-222r-174,0r0,354"},"5":{"d":"686,-188v23,69,8,113,-34,154v-23,23,-55,34,-98,34r-554,0r0,-132r459,0v29,3,16,-27,6,-31r-392,-145v-102,-25,-67,-157,-73,-272r696,0r0,136r-504,0r1,30r435,164v29,11,48,32,58,62","w":772},"6":{"d":"489,-190v-11,-52,-138,-32,-210,-32r-104,0v1,72,25,90,108,90r97,0v68,3,100,-20,109,-58xm-1,-413v4,-124,62,-168,203,-167r461,0r0,132r-380,0v-85,1,-107,18,-108,94r276,0v168,16,213,36,213,187v0,124,-62,168,-203,167r-259,0v-141,1,-203,-43,-203,-167r0,-246"},"7":{"d":"0,0r248,0r380,-294v64,-39,89,-130,53,-211v-19,-42,-113,-75,-189,-75r-490,0r0,136r490,0v16,-4,22,24,13,30","w":772},"8":{"d":"174,-390v11,52,138,32,210,32v64,0,94,2,105,-32v-8,-38,-41,-58,-109,-58r-97,0v-68,-3,-100,20,-109,58xm664,-192v4,140,-52,192,-203,192r-259,0v-151,1,-206,-51,-203,-192v1,-40,38,-68,110,-84v-82,-35,-114,-61,-110,-137v6,-124,62,-168,203,-167r259,0v151,-1,203,51,203,192v0,48,-37,85,-110,112v72,16,109,44,110,84xm489,-190v-11,-55,-132,-36,-208,-36v-65,0,-96,1,-107,36v8,38,41,58,109,58r97,0v68,3,100,-20,109,-58"},"9":{"d":"174,-390v11,52,138,32,210,32r104,0v-1,-72,-25,-90,-108,-90r-97,0v-68,-3,-100,20,-109,58xm664,-167v-4,124,-62,168,-203,167r-461,0r0,-132r380,0v85,-1,107,-18,108,-94r-276,0v-168,-16,-213,-36,-213,-187v0,-124,62,-168,203,-167r259,0v141,-1,203,43,203,167r0,246"},":":{"d":"124,-363r0,115r-124,0r0,-115r124,0xm124,-115r0,115r-124,0r0,-115r124,0","w":198},";":{"d":"124,-363r0,115r-124,0r0,-115r124,0xm124,-115r0,115r-124,138r0,-253r124,0","w":198},"<":{"d":"282,-448v-77,-1,-108,25,-108,90r0,132v4,69,29,94,108,94r0,132r-77,0v-141,0,-206,-40,-206,-167r0,-246v-5,-155,116,-174,283,-167r0,132","w":358},"=":{"d":"2,-340r0,-132r409,0r0,132r-409,0xm2,-126r0,-132r409,0r0,132r-409,0","w":486},">":{"d":"-1,-448v77,-1,108,25,108,90r0,132v-4,69,-29,94,-108,94r0,132r77,0v141,0,206,-40,206,-167r0,-246v5,-155,-116,-174,-283,-167r0,132","w":358},"?":{"d":"686,-392v23,-69,8,-113,-34,-154v-23,-23,-55,-34,-98,-34r-554,0r0,132r459,0v29,-3,16,27,6,31r-392,145v-49,17,-73,49,-73,96r188,0r440,-154v29,-11,48,-32,58,-62xm154,-115r0,115r-124,0r0,-115r124,0","w":772},"@":{"d":"393,-484v108,1,143,21,143,115r0,369r128,0r0,-413v-4,-124,-62,-168,-203,-167r-256,0v-141,0,-206,40,-206,167r0,246v4,126,65,167,206,167r187,0r1,-87r-128,0v-101,1,-140,-29,-140,-116r0,-166v3,-88,38,-115,140,-115r128,0xm356,-432v30,1,67,54,77,78v0,5,16,68,48,190r-80,0r-22,-89r-98,0r-21,89r-78,0v52,-184,23,-169,82,-242v27,-33,45,-26,92,-26xm305,-318r59,0v-7,-22,-19,-65,-42,-40v-8,8,-13,25,-17,40"},"A":{"d":"458,-580v141,0,206,40,206,167r-1,413r-174,0r0,-226r-315,0r0,226r-174,0r-1,-413v4,-126,65,-167,206,-167r253,0xm489,-358v-4,-65,-31,-91,-108,-90v-63,2,-159,-8,-185,24v-14,17,-21,38,-22,66r315,0"},"B":{"d":"489,-190v-11,-35,-43,-36,-107,-36r-208,0r0,94r206,0v68,3,100,-20,109,-58xm489,-390v-8,-38,-41,-58,-109,-58r-206,0r0,90r210,0v64,-2,94,2,105,-32xm461,-580v151,-1,203,51,203,192v0,48,-37,85,-110,112v82,23,114,40,110,109v-6,124,-62,168,-203,167r-461,0r0,-580r461,0"},"C":{"d":"461,0v164,4,212,-66,203,-224r-175,0v-3,74,-25,91,-109,92r-98,0v-78,0,-107,-24,-107,-92r0,-132v2,-67,29,-93,107,-92r98,0v84,1,106,18,109,92r175,0v8,-157,-38,-224,-203,-224r-256,0v-141,0,-206,40,-206,167r0,246v4,126,65,167,206,167r256,0"},"D":{"d":"488,-356v-2,-67,-29,-93,-107,-92r-207,0r0,316r207,0v78,0,107,-24,107,-92r0,-132xm664,-167v-4,126,-65,167,-206,167r-458,0r0,-580r458,0v141,0,206,40,206,167r0,246"},"E":{"d":"-1,-413v4,-126,65,-167,206,-167r459,0r0,132r-382,0v-77,-1,-104,25,-108,90r490,0r0,132r-490,0v4,69,29,94,108,94r382,0r0,132r-459,0v-141,0,-206,-40,-206,-167r0,-246"},"F":{"d":"-1,-413v4,-126,65,-167,206,-167r459,0r0,132r-382,0v-77,-1,-104,25,-108,90r490,0r0,132r-490,0r0,226r-174,0"},"G":{"d":"0,-167v4,126,65,167,206,167r458,0r0,-322r-174,0r0,190r-207,0v-78,0,-107,-24,-107,-92r0,-132v2,-67,29,-93,107,-92r381,0r0,-132r-458,0v-141,0,-206,40,-206,167r0,246"},"H":{"d":"174,-226r314,0r0,226r176,0r0,-580r-176,0r0,222r-314,0r0,-222r-174,0r0,580r174,0r0,-226"},"I":{"d":"174,0r-174,0r0,-580r175,0","w":252},"J":{"d":"202,0v-164,4,-212,-66,-203,-224r175,0v3,74,25,91,109,92r98,0v78,0,107,-24,107,-92r0,-356r176,0r0,413v-4,126,-65,167,-206,167r-256,0"},"K":{"d":"332,-226r-158,0r0,226r-174,0r0,-580r175,0r-1,220r157,0r157,-220r176,0r-180,290r180,290r-176,0"},"L":{"d":"175,-224v2,67,29,93,107,92r382,0r0,132r-459,0v-141,0,-206,-40,-206,-167r0,-413r176,0r0,356"},"M":{"d":"850,-413v-4,-124,-62,-168,-203,-167r-442,0v-141,0,-206,40,-206,167r0,413r176,0r0,-356v-5,-87,64,-97,157,-92r1,448r177,0r0,-448r56,0v84,1,109,18,109,92r0,356r175,0r0,-413","w":928},"N":{"d":"380,-448v84,1,109,18,109,92r0,356r175,0r0,-413v-4,-124,-62,-168,-203,-167r-256,0v-141,0,-206,40,-206,167r0,413r176,0r0,-356v2,-67,29,-93,107,-92r98,0"},"O":{"d":"461,0v141,1,203,-43,203,-167r0,-246v-4,-124,-62,-168,-203,-167r-256,0v-141,0,-206,40,-206,167r0,246v4,126,65,167,206,167r256,0xm380,-448v84,1,109,18,109,92r0,133v-6,72,-24,91,-109,91r-98,0v-78,0,-107,-24,-107,-92r0,-132v2,-67,29,-93,107,-92r98,0"},"P":{"d":"489,-390v-8,38,-41,58,-109,58r-206,0r0,-116r206,0v68,-3,100,20,109,58xm664,-367v6,-152,-43,-213,-203,-213r-461,0r0,580r174,0r0,-200r287,0v141,1,198,-43,203,-167"},"Q":{"d":"461,0v141,1,203,-43,203,-167r0,-246v-4,-124,-62,-168,-203,-167r-256,0v-141,0,-206,40,-206,167r0,246v4,126,65,167,206,167r256,0xm380,-448v84,0,108,19,108,92v0,87,29,227,-72,216r0,-136r-170,0r0,136v-44,11,-71,-36,-71,-84r0,-132v2,-67,29,-93,107,-92r98,0"},"R":{"d":"489,-390v-8,38,-41,58,-109,58r-206,0r0,-116r206,0v68,-3,100,20,109,58xm664,-367v0,-152,-43,-213,-203,-213r-461,0r0,580r174,0r0,-200r108,0r194,200r196,0r-194,-200v119,8,186,-53,186,-167"},"S":{"d":"686,-188v23,69,8,113,-34,154v-23,23,-55,34,-98,34r-554,0r0,-132r459,0v29,3,16,-27,6,-31r-392,-145v-65,-17,-82,-82,-69,-151v18,-42,18,-72,76,-96v36,-15,77,-25,126,-25r490,0r0,136r-490,0v-16,-4,-22,24,-13,30r435,164v29,11,48,32,58,62","w":774},"T":{"d":"240,-448r-240,0r0,-132r664,0r0,132r-250,0r0,448r-174,0r0,-448"},"U":{"d":"380,-132v84,-1,109,-18,109,-92r0,-356r175,0r0,413v-4,124,-62,168,-203,167r-256,0v-141,0,-206,-40,-206,-167r0,-413r176,0r0,356v2,67,29,93,107,92r98,0"},"V":{"d":"399,-224v-14,46,-31,75,-67,86v-35,-10,-56,-40,-68,-86r-89,-356r-176,0v69,265,107,405,115,418v13,51,103,162,168,162v97,0,153,8,204,-58v31,-40,53,-74,64,-106v4,-12,43,-151,114,-416r-176,0"},"W":{"d":"850,-167v-4,124,-62,168,-203,167r-442,0v-141,0,-206,-40,-206,-167r0,-413r176,0r0,356v-5,87,64,97,157,92r1,-448r177,0r0,448r56,0v84,-1,109,-18,109,-92r0,-356r175,0r0,413","w":928},"X":{"d":"332,-226r156,226r176,0r-180,-290r180,-290r-176,0r-155,222r-157,-222r-176,0r180,290r-180,290r176,0"},"Y":{"d":"-1,-367v-1,137,86,174,241,167r0,200r174,0r0,-200v157,7,250,-26,250,-167r0,-213r-176,0r0,176v-5,54,-34,72,-108,72r-97,0v-74,1,-108,-18,-108,-72r0,-176r-176,0r0,213"},"Z":{"d":"686,-392v23,-69,8,-113,-34,-154v-23,-23,-55,-34,-98,-34r-554,0r0,132r459,0v29,-3,16,27,6,31r-392,145v-65,17,-82,82,-69,151v18,42,18,72,76,96v36,15,77,25,126,25r490,0r0,-136r-490,0v-16,4,-22,-24,-13,-30r435,-164v29,-11,48,-32,58,-62","w":774},"[":{"d":"174,-448r0,316r108,0r0,132r-282,0r0,-580r282,0r1,132r-109,0","w":358},"\\":{"d":"512,0r185,0r-515,-613r-182,0","w":762},"]":{"d":"109,-448r0,316r-108,0r0,132r282,0r0,-580r-282,0r0,132r108,0","w":358},"^":{"w":569},"_":{"d":"0,66r0,-74r749,0r0,74r-749,0","w":767},"`":{"d":"124,-579r0,115r-124,138r0,-253r124,0","w":198},"a":{"d":"254,-322r156,0v-16,-58,-50,-159,-112,-100v-19,18,-34,64,-44,100xm438,-190r-215,0r-48,190r-176,0v69,-265,107,-403,111,-414v20,-54,99,-166,172,-166v97,0,153,-8,204,58v31,40,53,75,64,108v4,11,43,149,114,414r-176,0"},"b":{"d":"489,-190v-11,-35,-43,-36,-107,-36r-208,0r0,94r206,0v68,3,100,-20,109,-58xm489,-390v-8,-38,-41,-58,-109,-58r-206,0r0,90r210,0v64,-2,94,2,105,-32xm461,-580v151,-1,203,51,203,192v0,48,-37,85,-110,112v82,23,114,40,110,109v-6,124,-62,168,-203,167r-461,0r0,-580r461,0"},"c":{"d":"282,-448v-77,-1,-108,25,-108,90r0,132v4,69,29,94,108,94r382,0r0,132r-459,0v-141,0,-206,-40,-206,-167r0,-246v4,-126,65,-167,206,-167r459,0r0,132r-382,0"},"d":{"d":"488,-356v-2,-67,-29,-93,-107,-92r-207,0r0,316r207,0v78,0,107,-24,107,-92r0,-132xm664,-167v-4,126,-65,167,-206,167r-458,0r0,-580r458,0v141,0,206,40,206,167r0,246"},"e":{"d":"-1,-413v4,-126,65,-167,206,-167r459,0r0,132r-382,0v-77,-1,-104,25,-108,90r490,0r0,132r-490,0v4,69,29,94,108,94r382,0r0,132r-459,0v-141,0,-206,-40,-206,-167r0,-246"},"f":{"d":"-1,-413v4,-126,65,-167,206,-167r459,0r0,132r-382,0v-77,-1,-104,25,-108,90r490,0r0,132r-490,0r0,226r-174,0","w":740},"g":{"d":"0,-167v4,126,65,167,206,167r458,0r0,-322r-174,0r0,190r-207,0v-78,0,-107,-24,-107,-92r0,-132v2,-67,29,-93,107,-92r381,0r0,-132r-458,0v-141,0,-206,40,-206,167r0,246"},"h":{"d":"174,-226r314,0r0,226r176,0r0,-580r-176,0r0,222r-314,0r0,-222r-174,0r0,580r174,0r0,-226"},"i":{"d":"174,0r-174,0r0,-580r175,0","w":252},"j":{"d":"488,-224v-2,67,-29,93,-107,92r-382,0r0,132r459,0v141,0,206,-40,206,-167r0,-413r-176,0r0,356"},"k":{"d":"332,-226r-158,0r0,226r-174,0r0,-580r175,0r-1,220r157,0r157,-220r176,0r-180,290r180,290r-176,0"},"l":{"d":"175,-224v2,67,29,93,107,92r382,0r0,132r-459,0v-141,0,-206,-40,-206,-167r0,-413r176,0r0,356"},"m":{"d":"850,-413v-4,-124,-62,-168,-203,-167r-442,0v-141,0,-206,40,-206,167r0,413r176,0r0,-356v-5,-87,64,-97,157,-92r1,448r177,0r0,-448r56,0v84,1,109,18,109,92r0,356r175,0r0,-413","w":928},"n":{"d":"380,-448v84,1,109,18,109,92r0,356r175,0r0,-413v-4,-124,-62,-168,-203,-167r-256,0v-141,0,-206,40,-206,167r0,413r176,0r0,-356v2,-67,29,-93,107,-92r98,0"},"o":{"d":"461,0v141,1,203,-43,203,-167r0,-246v-4,-124,-62,-168,-203,-167r-256,0v-141,0,-206,40,-206,167r0,246v4,126,65,167,206,167r256,0xm380,-448v84,1,109,18,109,92r0,133v-6,72,-24,91,-109,91r-98,0v-78,0,-107,-24,-107,-92r0,-132v2,-67,29,-93,107,-92r98,0"},"p":{"d":"489,-390v-8,38,-41,58,-109,58r-206,0r0,-116r206,0v68,-3,100,20,109,58xm664,-367v6,-152,-43,-213,-203,-213r-461,0r0,580r174,0r0,-200r287,0v141,1,198,-43,203,-167"},"q":{"d":"461,0v141,1,203,-43,203,-167r0,-246v-4,-124,-62,-168,-203,-167r-256,0v-141,0,-206,40,-206,167r0,246v4,126,65,167,206,167r256,0xm380,-448v84,0,108,19,108,92v0,87,29,227,-72,216r0,-136r-170,0r0,136v-44,11,-71,-36,-71,-84r0,-132v2,-67,29,-93,107,-92r98,0"},"r":{"d":"489,-390v-8,38,-41,58,-109,58r-206,0r0,-116r206,0v68,-3,100,20,109,58xm664,-367v0,-152,-43,-213,-203,-213r-461,0r0,580r174,0r0,-200r108,0r194,200r196,0r-194,-200v119,8,186,-53,186,-167"},"s":{"d":"686,-188v23,69,8,113,-34,154v-23,23,-55,34,-98,34r-554,0r0,-132r459,0v29,3,16,-27,6,-31r-392,-145v-65,-17,-82,-82,-69,-151v18,-42,18,-72,76,-96v36,-15,77,-25,126,-25r490,0r0,136r-490,0v-16,-4,-22,24,-13,30r435,164v29,11,48,32,58,62","w":774},"t":{"d":"240,-448r-240,0r0,-132r664,0r0,132r-250,0r0,448r-174,0r0,-448"},"u":{"d":"380,-132v84,-1,109,-18,109,-92r0,-356r175,0r0,413v-4,124,-62,168,-203,167r-256,0v-141,0,-206,-40,-206,-167r0,-413r176,0r0,356v2,67,29,93,107,92r98,0"},"v":{"d":"399,-224v-14,46,-31,75,-67,86v-35,-10,-56,-40,-68,-86r-89,-356r-176,0v69,265,107,405,115,418v13,51,103,162,168,162v97,0,153,8,204,-58v31,-40,53,-74,64,-106v4,-12,43,-151,114,-416r-176,0"},"w":{"d":"850,-167v-4,124,-62,168,-203,167r-442,0v-141,0,-206,-40,-206,-167r0,-413r176,0r0,356v-5,87,64,97,157,92r1,-448r177,0r0,448r56,0v84,-1,109,-18,109,-92r0,-356r175,0r0,413","w":928},"x":{"d":"332,-226r156,226r176,0r-180,-290r180,-290r-176,0r-155,222r-157,-222r-176,0r180,290r-180,290r176,0"},"y":{"d":"240,-216r-240,-364r176,0r157,222r155,-222r176,0r-250,364r0,216r-174,0r0,-216"},"z":{"d":"686,-392v23,-69,8,-113,-34,-154v-23,-23,-55,-34,-98,-34r-554,0r0,132r459,0v29,-3,16,27,6,31r-392,145v-65,17,-82,82,-69,151v18,42,18,72,76,96v36,15,77,25,126,25r490,0r0,-136r-490,0v-16,4,-22,-24,-13,-30r435,-164v29,-11,48,-32,58,-62","w":774},"{":{"d":"282,-448v-77,-1,-108,25,-108,90r0,132v4,69,29,94,108,94r0,132r-77,0v-141,0,-206,-40,-206,-167r0,-246v-5,-155,116,-174,283,-167r0,132","w":358},"|":{"w":372},"}":{"d":"-1,-448v77,-1,108,25,108,90r0,132v-4,69,-29,94,-108,94r0,132r77,0v141,0,206,-40,206,-167r0,-246v5,-155,-116,-174,-283,-167r0,132","w":358},"~":{"w":569},"\u00a0":{"w":522}}});
